FANN_FLO_2.1
num_layers=3
learning_rate=0,700000
connection_rate=1,000000
network_type=0
learning_momentum=0,000000
training_algorithm=2
train_error_function=1
train_stop_function=0
cascade_output_change_fraction=0,010000
quickprop_decay=-0,000100
quickprop_mu=1,750000
rprop_increase_factor=1,200000
rprop_decrease_factor=0,500000
rprop_delta_min=0,000000
rprop_delta_max=50,000000
rprop_delta_zero=0,100000
cascade_output_stagnation_epochs=12
cascade_candidate_change_fraction=0,010000
cascade_candidate_stagnation_epochs=12
cascade_max_out_epochs=150
cascade_min_out_epochs=50
cascade_max_cand_epochs=150
cascade_min_cand_epochs=50
cascade_num_candidate_groups=2
bit_fail_limit=3,49999994039535522461e-01
cascade_candidate_limit=1,00000000000000000000e+03
cascade_weight_multiplier=4,00000005960464477539e-01
cascade_activation_functions_count=10
cascade_activation_functions=3 5 7 8 10 11 14 15 16 17 
cascade_activation_steepnesses_count=4
cascade_activation_steepnesses=2,50000000000000000000e-01 5,00000000000000000000e-01 7,50000000000000000000e-01 1,00000000000000000000e+00 
layer_sizes=11 21 2 
scale_included=0
neurons (num_inputs, activation_function, activation_steepness)=(0, 0, 0,00000000000000000000e+00) (0, 0, 0,00000000000000000000e+00) (0, 0, 0,00000000000000000000e+00) (0, 0, 0,00000000000000000000e+00) (0, 0, 0,00000000000000000000e+00) (0, 0, 0,00000000000000000000e+00) (0, 0, 0,00000000000000000000e+00) (0, 0, 0,00000000000000000000e+00) (0, 0, 0,00000000000000000000e+00) (0, 0, 0,00000000000000000000e+00) (0, 0, 0,00000000000000000000e+00) (11, 5, 9,99999977648258209229e-03) (11, 5, 9,99999977648258209229e-03) (11, 5, 9,99999977648258209229e-03) (11, 5, 9,99999977648258209229e-03) (11, 5, 9,99999977648258209229e-03) (11, 5, 9,99999977648258209229e-03) (11, 5, 9,99999977648258209229e-03) (11, 5, 9,99999977648258209229e-03) (11, 5, 9,99999977648258209229e-03) (11, 5, 9,99999977648258209229e-03) (11, 5, 9,99999977648258209229e-03) (11, 5, 9,99999977648258209229e-03) (11, 5, 9,99999977648258209229e-03) (11, 5, 9,99999977648258209229e-03) (11, 5, 9,99999977648258209229e-03) (11, 5, 9,99999977648258209229e-03) (11, 5, 9,99999977648258209229e-03) (11, 5, 9,99999977648258209229e-03) (11, 5, 9,99999977648258209229e-03) (11, 5, 9,99999977648258209229e-03) (0, 0, 0,00000000000000000000e+00) (21, 5, 9,99999977648258209229e-03) (0, 0, 0,00000000000000000000e+00) 
connections (connected_to_neuron, weight)=(0, 9,68209991455078125000e+01) (1, -9,46086883544921875000e+01) (2, 6,38198852539062500000e+01) (3, 1,59139144897460937500e+02) (4, 4,89792053222656250000e+02) (5, 1,08167400360107421875e+01) (6, 9,64425582885742187500e+01) (7, -1,06944160461425781250e+02) (8, 4,42756996154785156250e+01) (9, 3,66774047851562500000e+02) (10, 2,15899696350097656250e+01) (0, 1,49107122421264648438e+00) (1, 2,33323879241943359375e+01) (2, -3,17425804138183593750e+01) (3, -3,28670425415039062500e+01) (4, -3,99335365295410156250e+01) (5, 2,48526573181152343750e+01) (6, 4,03505432128906250000e+02) (7, -1,36514480590820312500e+02) (8, -2,30946670532226562500e+02) (9, -7,25863571166992187500e+01) (10, 7,15629673004150390625e+00) (0, -2,95619487762451171875e+00) (1, 2,01709976196289062500e+02) (2, -2,45359458923339843750e+01) (3, -4,29670410156250000000e+01) (4, -3,17653236389160156250e+01) (5, 2,45930465698242187500e+02) (6, 2,01442165374755859375e+01) (7, -4,05566558837890625000e+01) (8, -1,08227035522460937500e+02) (9, 7,22858734130859375000e+01) (10, 3,04778270721435546875e+01) (0, 1,93309640884399414062e+00) (1, 1,58121967315673828125e+00) (2, -3,64647817611694335938e+00) (3, -1,16680860519409179688e+01) (4, -1,60839576721191406250e+01) (5, 3,78506374359130859375e+00) (6, -5,55556631088256835938e+00) (7, 7,99361562728881835938e+00) (8, 5,12944221496582031250e+01) (9, 2,47735786437988281250e+01) (10, 5,58608353137969970703e-01) (0, -9,34060990810394287109e-01) (1, -3,85014593601226806641e-01) (2, 2,73208308219909667969e+00) (3, 3,62488031387329101562e+00) (4, 4,45294857025146484375e+00) (5, -1,32587921619415283203e+00) (6, 8,87626647949218750000e-01) (7, 1,13802158832550048828e+00) (8, 8,46830654144287109375e+00) (9, 1,21633644104003906250e+01) (10, 1,77975520491600036621e-01) (0, 4,47028398513793945312e-01) (1, 9,59855198860168457031e-01) (2, 4,47947645187377929688e+00) (3, 4,23714065551757812500e+00) (4, 8,27873611450195312500e+00) (5, 3,71473455429077148438e+00) (6, 1,37742023468017578125e+01) (7, -5,64313316345214843750e+00) (8, -4,06454467773437500000e+00) (9, 4,66557168960571289062e+00) (10, 6,47852778434753417969e-01) (0, -8,52511823177337646484e-01) (1, -1,27170663326978683472e-02) (2, 2,60890221595764160156e+00) (3, 3,20922327041625976562e+00) (4, 5,61808681488037109375e+00) (5, 6,40533044934272766113e-02) (6, 3,76790118217468261719e+00) (7, -1,04861414432525634766e+00) (8, 6,33138942718505859375e+00) (9, 1,28851871490478515625e+01) (10, 1,01739056408405303955e-01) (0, 1,59539520740509033203e+00) (1, 2,32569789886474609375e+01) (2, -3,29090118408203125000e+01) (3, -3,12813339233398437500e+01) (4, -4,98601493835449218750e+01) (5, 2,31122779846191406250e+01) (6, 4,22767517089843750000e+02) (7, -1,36881454467773437500e+02) (8, -2,16142242431640625000e+02) (9, -7,26900100708007812500e+01) (10, 7,28357315063476562500e+00) (0, -1,20740406215190887451e-01) (1, -5,22390782833099365234e-01) (2, 1,85843181610107421875e+00) (3, 3,35832285881042480469e+00) (4, 6,36246633529663085938e+00) (5, -3,58974242210388183594e+00) (6, 3,36311388015747070312e+00) (7, 6,17665290832519531250e+00) (8, 8,56075191497802734375e+00) (9, 9,98086833953857421875e+00) (10, 1,08305059373378753662e-01) (0, 2,35362815856933593750e+01) (1, 1,71055862426757812500e+02) (2, -3,74552154541015625000e+01) (3, -2,32999176025390625000e+02) (4, 2,89018737792968750000e+02) (5, 5,93802604675292968750e+01) (6, -4,27838714599609375000e+02) (7, 1,35713195800781250000e+02) (8, 5,46175231933593750000e+02) (9, 6,15461242675781250000e+02) (10, -6,00754594802856445312e+00) (0, 3,86560648679733276367e-01) (1, 1,92837870121002197266e+00) (2, 6,33089780807495117188e+00) (3, 4,24320650100708007812e+00) (4, 1,86060082912445068359e+00) (5, 5,18415117263793945312e+00) (6, 1,50033578872680664062e+01) (7, -6,83421182632446289062e+00) (8, -7,09100544452667236328e-01) (9, 2,10988807678222656250e+01) (10, 6,03438079357147216797e-01) (0, 2,13156536221504211426e-01) (1, 1,22243475914001464844e+00) (2, 7,20432043075561523438e+00) (3, 4,18040323257446289062e+00) (4, 5,16867446899414062500e+00) (5, 9,01832485198974609375e+00) (6, 1,36376705169677734375e+01) (7, -6,43030500411987304688e+00) (8, -3,69848847389221191406e+00) (9, 5,76761293411254882812e+00) (10, 6,71143651008605957031e-01) (0, 2,04536342620849609375e+00) (1, 1,51467204093933105469e+00) (2, -3,39127135276794433594e+00) (3, -1,28178844451904296875e+01) (4, -1,51497898101806640625e+01) (5, 4,00420475006103515625e+00) (6, -5,56990098953247070312e+00) (7, 7,98775053024291992188e+00) (8, 1,72953929901123046875e+01) (9, -7,02239423990249633789e-02) (10, 5,09614229202270507812e-01) (0, 1,53068227767944335938e+01) (1, 1,25775682926177978516e+00) (2, 1,59839611053466796875e+01) (3, 3,30844068527221679688e+00) (4, 4,26369590759277343750e+01) (5, -9,72575836181640625000e+01) (6, -1,75317489624023437500e+02) (7, -2,12182449340820312500e+02) (8, -8,78148422241210937500e+01) (9, -2,11023971557617187500e+02) (10, 1,86722221374511718750e+01) (0, 2,15117828369140625000e+02) (1, -1,92151470184326171875e+01) (2, 4,42740554809570312500e+01) (3, 7,52757263183593750000e+01) (4, 3,18841125488281250000e+02) (5, -3,46702308654785156250e+01) (6, -8,59216979980468750000e+02) (7, 4,18583770751953125000e+02) (8, 5,09818389892578125000e+02) (9, 2,23341842651367187500e+02) (10, 3,85837554931640625000e+01) (0, 7,80480265617370605469e-01) (1, 1,75350323319435119629e-01) (2, 4,71770524978637695312e+00) (3, 4,03733682632446289062e+00) (4, 1,94943313598632812500e+01) (5, 7,10527420043945312500e-01) (6, -1,80760917663574218750e+01) (7, -1,61361384391784667969e+00) (8, -1,87824189662933349609e+00) (9, 1,18732728958129882812e+01) (10, 3,98005336523056030273e-01) (0, 1,22490239143371582031e+00) (1, 1,20845198631286621094e+00) (2, 8,88861370086669921875e+00) (3, 4,32180166244506835938e+00) (4, 5,30433416366577148438e+00) (5, 2,01341190338134765625e+01) (6, 1,95081787109375000000e+01) (7, -7,75413322448730468750e+00) (8, -1,10116691589355468750e+01) (9, 7,83663177490234375000e+00) (10, 7,66811609268188476562e-01) (0, 1,20408391952514648438e+00) (1, 2,13565945625305175781e+00) (2, 9,44942474365234375000e+00) (3, 4,17845678329467773438e+00) (4, 5,35073518753051757812e+00) (5, 2,34972133636474609375e+01) (6, 1,54790353775024414062e+01) (7, -7,83297491073608398438e+00) (8, -1,29452838897705078125e+01) (9, 8,81947422027587890625e+00) (10, 1,15676057338714599609e+00) (0, 4,19373214244842529297e-01) (1, 8,41471791267395019531e-01) (2, 4,48226165771484375000e+00) (3, 4,34189367294311523438e+00) (4, 1,77698171138763427734e+00) (5, 4,70026636123657226562e+00) (6, 1,71533203125000000000e+01) (7, -9,40332889556884765625e+00) (8, -6,13905131816864013672e-01) (9, 6,27022361755371093750e+01) (10, 7,00172841548919677734e-01) (0, 7,38845050334930419922e-01) (1, 6,15849435329437255859e-01) (2, 3,24856543540954589844e+00) (3, 4,09833955764770507812e+00) (4, 6,49714279174804687500e+01) (5, 1,24128252267837524414e-01) (6, -1,18393371582031250000e+02) (7, 1,08921417236328125000e+02) (8, 7,39377365112304687500e+01) (9, -9,35584640502929687500e+01) (10, 1,99655517935752868652e-01) (11, -2,03402481079101562500e+01) (12, 1,70268402099609375000e+01) (13, -2,89457855224609375000e+01) (14, -1,25674257278442382812e+01) (15, 3,68115692138671875000e+01) (16, 1,61618976593017578125e+01) (17, 8,93673400878906250000e+01) (18, 1,49435472488403320312e+01) (19, 6,32932205200195312500e+01) (20, 7,65634870529174804688e+00) (21, 2,35988063812255859375e+01) (22, 1,11917591094970703125e+01) (23, -3,92455062866210937500e+01) (24, 9,86841011047363281250e+00) (25, 1,61295166015625000000e+01) (26, 1,37169599533081054688e+01) (27, 1,73704166412353515625e+01) (28, 1,83710403442382812500e+01) (29, 1,61041965484619140625e+01) (30, 5,62665748596191406250e+00) (31, 1,95605087280273437500e+00) 
